-0.2666441
0.03313649
0.3382404
0.9674797
-0.4575926
-0.2293605
-0.8854737
0.9668956
0.09582675
0.7585611
-0.05743968
-0.278695
0.6700466
0.1470507
0.4655199
0.7889621
0.8000059
-0.3987073
0.7459621
-0.7249353
0.8612587
0.9712017
-0.7701912
-0.1852614
0.7629201
-0.2419192
-0.5453489
-0.30696
-0.944402
-0.2624918
-0.4383031
-0.3371061
-0.7286289
-0.219128
-0.2716211
0.8664224
-0.6722803
0.8761671
0.9189553
-0.7738256
0.3698597
0.06530559
-0.6129205
0.02052701
-0.5660336
-0.8048065
0.1224097
-0.2758559
-0.3609411
0.8751714
-0.52637
-0.6181393
0.7678046
0.1205217
0.01916611
0.611268
-0.7518411
-0.6681733
-0.01246321
-0.6293466
0.5467367
0.3844249
0.382004
0.4349303
0.3888683
0.09761703
-0.0773567
-0.2023548
-0.5781014
-0.2841502
-0.4583961
-0.6004558
0.07221925
-0.6916196
-0.2748741
0.02163422
-0.146217
0.1866621
-0.7448947
0.6758745
-0.4462925
0.1152643
-0.5607271
0.445961
-0.06713355
0.3970987
-0.8922546
-0.9044821
-0.639055
-0.4232582
0.5915999
0.6025653
0.4384
0.8701243
0.3324103
0.6532321
-0.2964002
-0.2620162
-0.8644426
0.673013
0.2063538
0.671258
-0.3207806
-0.622612
-0.07399976
0.3823836
-0.1670626
0.1220661
0.5170147
0.002746463
0.257509
0.9519374
-0.8662605
-0.07066405
0.847523
0.4300537
-0.5018625
0.1810206
0.03487504
0.9948144
-0.1758584
-0.6876585
-0.6808822
-0.8637614
0.8310564
0.150268
0.3890598
-0.3347291
-0.1725062
0.3774533
-0.6580198
-0.2710239
-0.4994
-0.9657655
0.9571409
0.1360568
0.5546391
-0.8447855
-0.5606697
-0.6959412
0.947845
0.05324447
-0.1337823
-0.5743439
-0.1675273
-0.5326498
-0.4323441
-0.2725762
-0.1547064
-0.5745022
-0.3802618
0.6567221
0.339772
0.09426296
-0.4605647
-0.9051752
0.6346416
0.7451541
0.3577056
-0.499827
0.5333569
0.8615317
-0.5765483
0.8996389
-0.7512398
-0.186407
0.1467165
0.09227335
0.2002169
-0.4179808
0.5544684
-0.9122672
0.06725109
-0.784286
-0.04692066
0.1528033
0.8906698
0.03384006
0.875